
J48 pruned tree
------------------

W_code <= 0
|   W_tests <= 0
|   |   W_added <= 0: 0 (289.0/8.0)
|   |   W_added > 0
|   |   |   W_disabled <= 0
|   |   |   |   W_correctly <= 0: 0 (42.0/4.0)
|   |   |   |   W_correctly > 0: 1 (3.0/1.0)
|   |   |   W_disabled > 0: 1 (3.0)
|   W_tests > 0
|   |   W_7_5_0 <= 0
|   |   |   W_diagnose <= 0
|   |   |   |   W_create <= 0: 0 (19.0)
|   |   |   |   W_create > 0: 1 (2.0)
|   |   |   W_diagnose > 0: 1 (4.0)
|   |   W_7_5_0 > 0: 1 (6.0)
W_code > 0
|   W_test <= 0
|   |   W_problem <= 0: 0 (8.0)
|   |   W_problem > 0: 1 (2.0)
|   W_test > 0: 1 (11.0/1.0)

Number of Leaves  : 	11

Size of the tree : 	21


Time taken to build model: 7.75 seconds
Time taken to test model on training data: 1.59 seconds

=== Error on training data ===

Correctly Classified Instances         375               96.401  %
Incorrectly Classified Instances        14                3.599  %
Kappa statistic                          0.7861
Mean absolute error                      0.0667
Root mean squared error                  0.1826
Relative absolute error                 35.074  %
Root relative squared error             59.4716 %
Total Number of Instances              389     


=== Detailed Accuracy By Class ===

               TP Rate   FP Rate   Precision   Recall  F-Measure   ROC Area  Class
                 0.994     0.293      0.966     0.994     0.98       0.892    0
                 0.707     0.006      0.935     0.707     0.806      0.892    1
Weighted Avg.    0.964     0.262      0.963     0.964     0.962      0.892


=== Confusion Matrix ===

   a   b   <-- classified as
 346   2 |   a = 0
  12  29 |   b = 1



=== Stratified cross-validation ===

Correctly Classified Instances         346               88.946  %
Incorrectly Classified Instances        43               11.054  %
Kappa statistic                          0.3351
Mean absolute error                      0.1336
Root mean squared error                  0.3194
Relative absolute error                 70.1965 %
Root relative squared error            104.0189 %
Total Number of Instances              389     


=== Detailed Accuracy By Class ===

               TP Rate   FP Rate   Precision   Recall  F-Measure   ROC Area  Class
                 0.954     0.659      0.925     0.954     0.939      0.67     0
                 0.341     0.046      0.467     0.341     0.394      0.67     1
Weighted Avg.    0.889     0.594      0.877     0.889     0.882      0.67 


=== Confusion Matrix ===

   a   b   <-- classified as
 332  16 |   a = 0
  27  14 |   b = 1

