
J48 pruned tree
------------------

W_windows <= 0
|   W_errors <= 0
|   |   W_JDBC <= 0
|   |   |   W_handling <= 0
|   |   |   |   W_ODBC_ <= 0
|   |   |   |   |   W_database <= 0
|   |   |   |   |   |   W_add <= 0: 0 (236.0/12.0)
|   |   |   |   |   |   W_add > 0
|   |   |   |   |   |   |   W_package <= 0: 0 (18.0/3.0)
|   |   |   |   |   |   |   W_package > 0: 1 (3.0)
|   |   |   |   |   W_database > 0
|   |   |   |   |   |   W_7_5 <= 0
|   |   |   |   |   |   |   W_test <= 0: 1 (5.0/1.0)
|   |   |   |   |   |   |   W_test > 0: 0 (8.0/1.0)
|   |   |   |   |   |   W_7_5 > 0: 0 (3.0)
|   |   |   |   W_ODBC_ > 0
|   |   |   |   |   W_PTS <= 0
|   |   |   |   |   |   W_enabled <= 0: 0 (15.0/3.0)
|   |   |   |   |   |   W_enabled > 0: 1 (2.0)
|   |   |   |   |   W_PTS > 0: 1 (2.0)
|   |   |   W_handling > 0
|   |   |   |   W_view <= 0
|   |   |   |   |   W__SYSDD_tpunx_ <= 0
|   |   |   |   |   |   W_7_5_00 <= 0
|   |   |   |   |   |   |   W_7_5 <= 0
|   |   |   |   |   |   |   |   W_changed <= 0: 0 (8.0/1.0)
|   |   |   |   |   |   |   |   W_changed > 0: 1 (3.0/1.0)
|   |   |   |   |   |   |   W_7_5 > 0: 1 (2.0)
|   |   |   |   |   |   W_7_5_00 > 0: 0 (5.0)
|   |   |   |   |   W__SYSDD_tpunx_ > 0: 1 (2.0)
|   |   |   |   W_view > 0: 1 (4.0)
|   |   W_JDBC > 0
|   |   |   W_7_5_00 <= 0
|   |   |   |   W_implicit <= 0
|   |   |   |   |   W_compiler <= 0: 0 (11.0/1.0)
|   |   |   |   |   W_compiler > 0: 1 (2.0)
|   |   |   |   W_implicit > 0: 1 (2.0)
|   |   |   W_7_5_00 > 0: 1 (8.0)
|   W_errors > 0
|   |   W_MaxDB <= 0
|   |   |   W_tables <= 0
|   |   |   |   W_7_5_00 <= 0
|   |   |   |   |   W_correct <= 0
|   |   |   |   |   |   W_PTS <= 0
|   |   |   |   |   |   |   W_shared <= 0: 0 (4.0)
|   |   |   |   |   |   |   W_shared > 0: 1 (2.0)
|   |   |   |   |   |   W_PTS > 0: 1 (3.0)
|   |   |   |   |   W_correct > 0: 0 (2.0)
|   |   |   |   W_7_5_00 > 0: 1 (12.0)
|   |   |   W_tables > 0: 0 (2.0)
|   |   W_MaxDB > 0: 0 (2.0)
W_windows > 0
|   W_explain <= 0
|   |   W_missing <= 0: 1 (17.0)
|   |   W_missing > 0: 0 (3.0/1.0)
|   W_explain > 0: 0 (3.0)

Number of Leaves  : 	29

Size of the tree : 	57


Time taken to build model: 12.5 seconds
Time taken to test model on training data: 1.56 seconds

=== Error on training data ===

Correctly Classified Instances         365               93.8303 %
Incorrectly Classified Instances        24                6.1697 %
Kappa statistic                          0.8102
Mean absolute error                      0.1084
Root mean squared error                  0.2328
Relative absolute error                 30.65   %
Root relative squared error             55.4211 %
Total Number of Instances              389     


=== Detailed Accuracy By Class ===

               TP Rate   FP Rate   Precision   Recall  F-Measure   ROC Area  Class
                 0.993     0.247      0.931     0.993     0.961      0.916    0
                 0.753     0.007      0.971     0.753     0.848      0.916    1
Weighted Avg.    0.938     0.192      0.94      0.938     0.935      0.916


=== Confusion Matrix ===

   a   b   <-- classified as
 298   2 |   a = 0
  22  67 |   b = 1



=== Stratified cross-validation ===

Correctly Classified Instances         313               80.4627 %
Incorrectly Classified Instances        76               19.5373 %
Kappa statistic                          0.3884
Mean absolute error                      0.2419
Root mean squared error                  0.4228
Relative absolute error                 68.3946 %
Root relative squared error            100.642  %
Total Number of Instances              389     


=== Detailed Accuracy By Class ===

               TP Rate   FP Rate   Precision   Recall  F-Measure   ROC Area  Class
                 0.913     0.562      0.846     0.913     0.878      0.675    0
                 0.438     0.087      0.6       0.438     0.506      0.675    1
Weighted Avg.    0.805     0.453      0.789     0.805     0.793      0.675


=== Confusion Matrix ===

   a   b   <-- classified as
 274  26 |   a = 0
  50  39 |   b = 1

