
J48 pruned tree
------------------

W_translation <= 0
|   W_Translation <= 0
|   |   W_routines <= 0
|   |   |   W_Patch <= 0
|   |   |   |   W_page <= 0
|   |   |   |   |   W_documentation <= 0
|   |   |   |   |   |   W_changes_ <= 0
|   |   |   |   |   |   |   W_making <= 0
|   |   |   |   |   |   |   |   W_case_ <= 0
|   |   |   |   |   |   |   |   |   W_Taylor <= 0
|   |   |   |   |   |   |   |   |   |   W_reported <= 0
|   |   |   |   |   |   |   |   |   |   |   W_FAQ_ <= 0
|   |   |   |   |   |   |   |   |   |   |   |   W_directly <= 0
|   |   |   |   |   |   |   |   |   |   |   |   |   W_discussion <= 0
|   |   |   |   |   |   |   |   |   |   |   |   |   |   W_format <= 0
|   |   |   |   |   |   |   |   |   |   |   |   |   |   |   W_fixed <= 0
|   |   |   |   |   |   |   |   |   |   |   |   |   |   |   |   W_checks <= 0
|   |   |   |   |   |   |   |   |   |   |   |   |   |   |   |   |   W_state <= 0
|   |   |   |   |   |   |   |   |   |   |   |   |   |   |   |   |   |   W_process <= 0
|   |   |   |   |   |   |   |   |   |   |   |   |   |   |   |   |   |   |   W_makes <= 0
|   |   |   |   |   |   |   |   |   |   |   |   |   |   |   |   |   |   |   |   W_transaction <= 0
|   |   |   |   |   |   |   |   |   |   |   |   |   |   |   |   |   |   |   |   |   W_HISTORY <= 0
|   |   |   |   |   |   |   |   |   |   |   |   |   |   |   |   |   |   |   |   |   |   W_regression <= 0
|   |   |   |   |   |   |   |   |   |   |   |   |   |   |   |   |   |   |   |   |   |   |   W_index <= 0
|   |   |   |   |   |   |   |   |   |   |   |   |   |   |   |   |   |   |   |   |   |   |   |   W_minor <= 0
|   |   |   |   |   |   |   |   |   |   |   |   |   |   |   |   |   |   |   |   |   |   |   |   |   W_idea <= 0
|   |   |   |   |   |   |   |   |   |   |   |   |   |   |   |   |   |   |   |   |   |   |   |   |   |   W_end <= 0
|   |   |   |   |   |   |   |   |   |   |   |   |   |   |   |   |   |   |   |   |   |   |   |   |   |   |   W_variables <= 0
|   |   |   |   |   |   |   |   |   |   |   |   |   |   |   |   |   |   |   |   |   |   |   |   |   |   |   |   W_names <= 0
|   |   |   |   |   |   |   |   |   |   |   |   |   |   |   |   |   |   |   |   |   |   |   |   |   |   |   |   |   W_Magnus <= 0
|   |   |   |   |   |   |   |   |   |   |   |   |   |   |   |   |   |   |   |   |   |   |   |   |   |   |   |   |   |   W_crash <= 0: 0 (50.0/1.0)
|   |   |   |   |   |   |   |   |   |   |   |   |   |   |   |   |   |   |   |   |   |   |   |   |   |   |   |   |   |   W_crash > 0: 1 (3.0/1.0)
|   |   |   |   |   |   |   |   |   |   |   |   |   |   |   |   |   |   |   |   |   |   |   |   |   |   |   |   |   W_Magnus > 0: 1 (3.0/1.0)
|   |   |   |   |   |   |   |   |   |   |   |   |   |   |   |   |   |   |   |   |   |   |   |   |   |   |   |   W_names > 0
|   |   |   |   |   |   |   |   |   |   |   |   |   |   |   |   |   |   |   |   |   |   |   |   |   |   |   |   |   W_Remove <= 0: 0 (3.0/1.0)
|   |   |   |   |   |   |   |   |   |   |   |   |   |   |   |   |   |   |   |   |   |   |   |   |   |   |   |   |   W_Remove > 0: 1 (2.0)
|   |   |   |   |   |   |   |   |   |   |   |   |   |   |   |   |   |   |   |   |   |   |   |   |   |   |   W_variables > 0
|   |   |   |   |   |   |   |   |   |   |   |   |   |   |   |   |   |   |   |   |   |   |   |   |   |   |   |   W_Remove <= 0: 0 (2.0)
|   |   |   |   |   |   |   |   |   |   |   |   |   |   |   |   |   |   |   |   |   |   |   |   |   |   |   |   W_Remove > 0: 1 (3.0)
|   |   |   |   |   |   |   |   |   |   |   |   |   |   |   |   |   |   |   |   |   |   |   |   |   |   W_end > 0
|   |   |   |   |   |   |   |   |   |   |   |   |   |   |   |   |   |   |   |   |   |   |   |   |   |   |   W_error <= 0: 1 (4.0)
|   |   |   |   |   |   |   |   |   |   |   |   |   |   |   |   |   |   |   |   |   |   |   |   |   |   |   W_error > 0: 0 (2.0)
|   |   |   |   |   |   |   |   |   |   |   |   |   |   |   |   |   |   |   |   |   |   |   |   |   W_idea > 0: 1 (4.0/1.0)
|   |   |   |   |   |   |   |   |   |   |   |   |   |   |   |   |   |   |   |   |   |   |   |   W_minor > 0
|   |   |   |   |   |   |   |   |   |   |   |   |   |   |   |   |   |   |   |   |   |   |   |   |   W_Conway <= 0: 1 (4.0)
|   |   |   |   |   |   |   |   |   |   |   |   |   |   |   |   |   |   |   |   |   |   |   |   |   W_Conway > 0: 0 (2.0)
|   |   |   |   |   |   |   |   |   |   |   |   |   |   |   |   |   |   |   |   |   |   |   W_index > 0: 0 (13.0)
|   |   |   |   |   |   |   |   |   |   |   |   |   |   |   |   |   |   |   |   |   |   W_regression > 0
|   |   |   |   |   |   |   |   |   |   |   |   |   |   |   |   |   |   |   |   |   |   |   W_version <= 0
|   |   |   |   |   |   |   |   |   |   |   |   |   |   |   |   |   |   |   |   |   |   |   |   W_bit <= 0: 1 (12.0/1.0)
|   |   |   |   |   |   |   |   |   |   |   |   |   |   |   |   |   |   |   |   |   |   |   |   W_bit > 0: 0 (2.0)
|   |   |   |   |   |   |   |   |   |   |   |   |   |   |   |   |   |   |   |   |   |   |   W_version > 0: 0 (3.0)
|   |   |   |   |   |   |   |   |   |   |   |   |   |   |   |   |   |   |   |   |   W_HISTORY > 0: 1 (6.0/1.0)
|   |   |   |   |   |   |   |   |   |   |   |   |   |   |   |   |   |   |   |   W_transaction > 0: 0 (14.0)
|   |   |   |   |   |   |   |   |   |   |   |   |   |   |   |   |   |   |   W_makes > 0
|   |   |   |   |   |   |   |   |   |   |   |   |   |   |   |   |   |   |   |   W__ <= 0: 1 (5.0)
|   |   |   |   |   |   |   |   |   |   |   |   |   |   |   |   |   |   |   |   W__ > 0: 0 (3.0/1.0)
|   |   |   |   |   |   |   |   |   |   |   |   |   |   |   |   |   |   W_process > 0: 0 (8.0)
|   |   |   |   |   |   |   |   |   |   |   |   |   |   |   |   |   W_state > 0: 0 (9.0)
|   |   |   |   |   |   |   |   |   |   |   |   |   |   |   |   W_checks > 0: 0 (10.0)
|   |   |   |   |   |   |   |   |   |   |   |   |   |   |   W_fixed > 0: 0 (13.0)
|   |   |   |   |   |   |   |   |   |   |   |   |   |   W_format > 0: 0 (16.0)
|   |   |   |   |   |   |   |   |   |   |   |   |   W_discussion > 0
|   |   |   |   |   |   |   |   |   |   |   |   |   |   W_Add_ <= 0
|   |   |   |   |   |   |   |   |   |   |   |   |   |   |   W_7_3 <= 0
|   |   |   |   |   |   |   |   |   |   |   |   |   |   |   |   W_Improve <= 0: 1 (15.0/1.0)
|   |   |   |   |   |   |   |   |   |   |   |   |   |   |   |   W_Improve > 0: 0 (2.0)
|   |   |   |   |   |   |   |   |   |   |   |   |   |   |   W_7_3 > 0: 0 (4.0)
|   |   |   |   |   |   |   |   |   |   |   |   |   |   W_Add_ > 0: 0 (5.0)
|   |   |   |   |   |   |   |   |   |   |   |   W_directly > 0: 0 (13.0)
|   |   |   |   |   |   |   |   |   |   |   W_FAQ_ > 0
|   |   |   |   |   |   |   |   |   |   |   |   W_files <= 0: 1 (11.0/1.0)
|   |   |   |   |   |   |   |   |   |   |   |   W_files > 0: 0 (2.0)
|   |   |   |   |   |   |   |   |   |   W_reported > 0
|   |   |   |   |   |   |   |   |   |   |   W_original <= 0: 0 (24.0)
|   |   |   |   |   |   |   |   |   |   |   W_original > 0
|   |   |   |   |   |   |   |   |   |   |   |   W_patch <= 0: 1 (2.0)
|   |   |   |   |   |   |   |   |   |   |   |   W_patch > 0: 0 (2.0)
|   |   |   |   |   |   |   |   |   W_Taylor > 0: 0 (21.0/1.0)
|   |   |   |   |   |   |   |   W_case_ > 0: 0 (16.0)
|   |   |   |   |   |   |   W_making > 0: 0 (19.0)
|   |   |   |   |   |   W_changes_ > 0: 0 (30.0)
|   |   |   |   |   W_documentation > 0
|   |   |   |   |   |   W_clauses <= 0
|   |   |   |   |   |   |   W_Kings_Lynne <= 0
|   |   |   |   |   |   |   |   W_constraints <= 0
|   |   |   |   |   |   |   |   |   W_names <= 0
|   |   |   |   |   |   |   |   |   |   W_parsing <= 0
|   |   |   |   |   |   |   |   |   |   |   W_wording <= 0
|   |   |   |   |   |   |   |   |   |   |   |   W_plpython <= 0
|   |   |   |   |   |   |   |   |   |   |   |   |   W_AIX <= 0
|   |   |   |   |   |   |   |   |   |   |   |   |   |   W_win32 <= 0
|   |   |   |   |   |   |   |   |   |   |   |   |   |   |   W_catalog <= 0
|   |   |   |   |   |   |   |   |   |   |   |   |   |   |   |   W_variables <= 0
|   |   |   |   |   |   |   |   |   |   |   |   |   |   |   |   |   W_running <= 0: 0 (38.0/2.0)
|   |   |   |   |   |   |   |   |   |   |   |   |   |   |   |   |   W_running > 0: 1 (3.0/1.0)
|   |   |   |   |   |   |   |   |   |   |   |   |   |   |   |   W_variables > 0
|   |   |   |   |   |   |   |   |   |   |   |   |   |   |   |   |   W_Fix <= 0: 0 (4.0)
|   |   |   |   |   |   |   |   |   |   |   |   |   |   |   |   |   W_Fix > 0: 1 (5.0)
|   |   |   |   |   |   |   |   |   |   |   |   |   |   |   W_catalog > 0: 1 (4.0/1.0)
|   |   |   |   |   |   |   |   |   |   |   |   |   |   W_win32 > 0: 1 (5.0/1.0)
|   |   |   |   |   |   |   |   |   |   |   |   |   W_AIX > 0: 1 (4.0)
|   |   |   |   |   |   |   |   |   |   |   |   W_plpython > 0: 1 (4.0)
|   |   |   |   |   |   |   |   |   |   |   W_wording > 0: 1 (4.0)
|   |   |   |   |   |   |   |   |   |   W_parsing > 0: 1 (4.0)
|   |   |   |   |   |   |   |   |   W_names > 0: 1 (7.0)
|   |   |   |   |   |   |   |   W_constraints > 0: 0 (6.0)
|   |   |   |   |   |   |   W_Kings_Lynne > 0: 0 (7.0)
|   |   |   |   |   |   W_clauses > 0: 0 (8.0)
|   |   |   |   W_page > 0
|   |   |   |   |   W_documentation_ <= 0
|   |   |   |   |   |   W_create <= 0
|   |   |   |   |   |   |   W_too_ <= 0
|   |   |   |   |   |   |   |   W_turns <= 0
|   |   |   |   |   |   |   |   |   W_Update <= 0: 0 (13.0)
|   |   |   |   |   |   |   |   |   W_Update > 0
|   |   |   |   |   |   |   |   |   |   W_Add <= 0: 1 (4.0)
|   |   |   |   |   |   |   |   |   |   W_Add > 0: 0 (4.0)
|   |   |   |   |   |   |   |   W_turns > 0: 1 (2.0)
|   |   |   |   |   |   |   W_too_ > 0: 1 (2.0)
|   |   |   |   |   |   W_create > 0: 1 (3.0)
|   |   |   |   |   W_documentation_ > 0: 1 (5.0)
|   |   |   W_Patch > 0
|   |   |   |   W_mode <= 0: 0 (50.0/1.0)
|   |   |   |   W_mode > 0: 1 (3.0/1.0)
|   |   W_routines > 0: 0 (31.0/1.0)
|   W_Translation > 0
|   |   W_build <= 0
|   |   |   W_discussion <= 0
|   |   |   |   W_Christopher <= 0
|   |   |   |   |   W_queries <= 0
|   |   |   |   |   |   W_postmaster <= 0: 1 (16.0/1.0)
|   |   |   |   |   |   W_postmaster > 0: 0 (3.0/1.0)
|   |   |   |   |   W_queries > 0: 0 (2.0)
|   |   |   |   W_Christopher > 0: 0 (2.0)
|   |   |   W_discussion > 0: 0 (2.0)
|   |   W_build > 0: 0 (4.0)
W_translation > 0
|   W_behavior <= 0
|   |   W_macros <= 0
|   |   |   W_pg_dump <= 0
|   |   |   |   W_unused <= 0: 1 (19.0/1.0)
|   |   |   |   W_unused > 0: 0 (2.0)
|   |   |   W_pg_dump > 0: 0 (2.0)
|   |   W_macros > 0: 0 (3.0)
|   W_behavior > 0: 0 (3.0)

Number of Leaves  : 	74

Size of the tree : 	147


Time taken to build model: 39.21 seconds
Time taken to test model on training data: 3.79 seconds

=== Error on training data ===

Correctly Classified Instances         618               96.5625 %
Incorrectly Classified Instances        22                3.4375 %
Kappa statistic                          0.9105
Mean absolute error                      0.0569
Root mean squared error                  0.1687
Relative absolute error                 14.922  %
Root relative squared error             38.6477 %
Total Number of Instances              640     


=== Detailed Accuracy By Class ===

               TP Rate   FP Rate   Precision   Recall  F-Measure   ROC Area  Class
                 0.973     0.055      0.981     0.973     0.977      0.988    0
                 0.945     0.027      0.923     0.945     0.934      0.988    1
Weighted Avg.    0.966     0.048      0.966     0.966     0.966      0.988


=== Confusion Matrix ===

   a   b   <-- classified as
 463  13 |   a = 0
   9 155 |   b = 1



=== Stratified cross-validation ===

Correctly Classified Instances         422               65.9375 %
Incorrectly Classified Instances       218               34.0625 %
Kappa statistic                          0.0614
Mean absolute error                      0.3494
Root mean squared error                  0.5592
Relative absolute error                 91.5672 %
Root relative squared error            128.0868 %
Total Number of Instances              640     


=== Detailed Accuracy By Class ===

               TP Rate   FP Rate   Precision   Recall  F-Measure   ROC Area  Class
                 0.796     0.738      0.758     0.796     0.777      0.535    0
                 0.262     0.204      0.307     0.262     0.283      0.535    1
Weighted Avg.    0.659     0.601      0.642     0.659     0.65       0.535


=== Confusion Matrix ===

   a   b   <-- classified as
 379  97 |   a = 0
 121  43 |   b = 1

