
J48 pruned tree
------------------

W_Implement <= 0
|   W_ago_ <= 0
|   |   W_actual <= 0
|   |   |   W_entries <= 0
|   |   |   |   W_temp <= 0
|   |   |   |   |   W_Kings_Lynne <= 0
|   |   |   |   |   |   W_references <= 0
|   |   |   |   |   |   |   W_things <= 0
|   |   |   |   |   |   |   |   W_win32 <= 0
|   |   |   |   |   |   |   |   |   W_log <= 0
|   |   |   |   |   |   |   |   |   |   W_Lane_ <= 0
|   |   |   |   |   |   |   |   |   |   |   W_idea <= 0
|   |   |   |   |   |   |   |   |   |   |   |   W_COPY <= 0
|   |   |   |   |   |   |   |   |   |   |   |   |   W_change_ <= 0
|   |   |   |   |   |   |   |   |   |   |   |   |   |   W_original <= 0
|   |   |   |   |   |   |   |   |   |   |   |   |   |   |   W_rules <= 0
|   |   |   |   |   |   |   |   |   |   |   |   |   |   |   |   W_Informix <= 0
|   |   |   |   |   |   |   |   |   |   |   |   |   |   |   |   |   W_multiple <= 0
|   |   |   |   |   |   |   |   |   |   |   |   |   |   |   |   |   |   W_buffer <= 0
|   |   |   |   |   |   |   |   |   |   |   |   |   |   |   |   |   |   |   W_free <= 0
|   |   |   |   |   |   |   |   |   |   |   |   |   |   |   |   |   |   |   |   W_constraints <= 0
|   |   |   |   |   |   |   |   |   |   |   |   |   |   |   |   |   |   |   |   |   W_fixed <= 0
|   |   |   |   |   |   |   |   |   |   |   |   |   |   |   |   |   |   |   |   |   |   W_typo <= 0
|   |   |   |   |   |   |   |   |   |   |   |   |   |   |   |   |   |   |   |   |   |   |   W_operator <= 0
|   |   |   |   |   |   |   |   |   |   |   |   |   |   |   |   |   |   |   |   |   |   |   |   W_creation <= 0
|   |   |   |   |   |   |   |   |   |   |   |   |   |   |   |   |   |   |   |   |   |   |   |   |   W_postgres <= 0
|   |   |   |   |   |   |   |   |   |   |   |   |   |   |   |   |   |   |   |   |   |   |   |   |   |   W_option <= 0
|   |   |   |   |   |   |   |   |   |   |   |   |   |   |   |   |   |   |   |   |   |   |   |   |   |   |   W_implementation <= 0
|   |   |   |   |   |   |   |   |   |   |   |   |   |   |   |   |   |   |   |   |   |   |   |   |   |   |   |   W_initdb <= 0: 0 (109.0/7.0)
|   |   |   |   |   |   |   |   |   |   |   |   |   |   |   |   |   |   |   |   |   |   |   |   |   |   |   |   W_initdb > 0
|   |   |   |   |   |   |   |   |   |   |   |   |   |   |   |   |   |   |   |   |   |   |   |   |   |   |   |   |   W_Also_ <= 0
|   |   |   |   |   |   |   |   |   |   |   |   |   |   |   |   |   |   |   |   |   |   |   |   |   |   |   |   |   |   W_create <= 0: 0 (7.0)
|   |   |   |   |   |   |   |   |   |   |   |   |   |   |   |   |   |   |   |   |   |   |   |   |   |   |   |   |   |   W_create > 0: 1 (2.0)
|   |   |   |   |   |   |   |   |   |   |   |   |   |   |   |   |   |   |   |   |   |   |   |   |   |   |   |   |   W_Also_ > 0: 1 (2.0)
|   |   |   |   |   |   |   |   |   |   |   |   |   |   |   |   |   |   |   |   |   |   |   |   |   |   |   W_implementation > 0
|   |   |   |   |   |   |   |   |   |   |   |   |   |   |   |   |   |   |   |   |   |   |   |   |   |   |   |   W_fix <= 0: 1 (4.0/1.0)
|   |   |   |   |   |   |   |   |   |   |   |   |   |   |   |   |   |   |   |   |   |   |   |   |   |   |   |   W_fix > 0: 0 (2.0)
|   |   |   |   |   |   |   |   |   |   |   |   |   |   |   |   |   |   |   |   |   |   |   |   |   |   W_option > 0
|   |   |   |   |   |   |   |   |   |   |   |   |   |   |   |   |   |   |   |   |   |   |   |   |   |   |   W_libpq <= 0
|   |   |   |   |   |   |   |   |   |   |   |   |   |   |   |   |   |   |   |   |   |   |   |   |   |   |   |   W_lot <= 0: 1 (6.0/1.0)
|   |   |   |   |   |   |   |   |   |   |   |   |   |   |   |   |   |   |   |   |   |   |   |   |   |   |   |   W_lot > 0: 0 (2.0)
|   |   |   |   |   |   |   |   |   |   |   |   |   |   |   |   |   |   |   |   |   |   |   |   |   |   |   W_libpq > 0: 0 (3.0)
|   |   |   |   |   |   |   |   |   |   |   |   |   |   |   |   |   |   |   |   |   |   |   |   |   W_postgres > 0
|   |   |   |   |   |   |   |   |   |   |   |   |   |   |   |   |   |   |   |   |   |   |   |   |   |   W_Remove <= 0: 1 (4.0)
|   |   |   |   |   |   |   |   |   |   |   |   |   |   |   |   |   |   |   |   |   |   |   |   |   |   W_Remove > 0: 0 (3.0)
|   |   |   |   |   |   |   |   |   |   |   |   |   |   |   |   |   |   |   |   |   |   |   |   W_creation > 0
|   |   |   |   |   |   |   |   |   |   |   |   |   |   |   |   |   |   |   |   |   |   |   |   |   W_longer <= 0: 1 (5.0)
|   |   |   |   |   |   |   |   |   |   |   |   |   |   |   |   |   |   |   |   |   |   |   |   |   W_longer > 0: 0 (2.0)
|   |   |   |   |   |   |   |   |   |   |   |   |   |   |   |   |   |   |   |   |   |   |   W_operator > 0
|   |   |   |   |   |   |   |   |   |   |   |   |   |   |   |   |   |   |   |   |   |   |   |   W_support <= 0: 1 (6.0/1.0)
|   |   |   |   |   |   |   |   |   |   |   |   |   |   |   |   |   |   |   |   |   |   |   |   W_support > 0: 0 (2.0)
|   |   |   |   |   |   |   |   |   |   |   |   |   |   |   |   |   |   |   |   |   |   W_typo > 0
|   |   |   |   |   |   |   |   |   |   |   |   |   |   |   |   |   |   |   |   |   |   |   W_adds <= 0
|   |   |   |   |   |   |   |   |   |   |   |   |   |   |   |   |   |   |   |   |   |   |   |   W___ <= 0: 1 (9.0/1.0)
|   |   |   |   |   |   |   |   |   |   |   |   |   |   |   |   |   |   |   |   |   |   |   |   W___ > 0: 0 (2.0)
|   |   |   |   |   |   |   |   |   |   |   |   |   |   |   |   |   |   |   |   |   |   |   W_adds > 0: 0 (4.0)
|   |   |   |   |   |   |   |   |   |   |   |   |   |   |   |   |   |   |   |   |   W_fixed > 0: 0 (16.0)
|   |   |   |   |   |   |   |   |   |   |   |   |   |   |   |   |   |   |   |   W_constraints > 0
|   |   |   |   |   |   |   |   |   |   |   |   |   |   |   |   |   |   |   |   |   W_problems <= 0: 1 (7.0/1.0)
|   |   |   |   |   |   |   |   |   |   |   |   |   |   |   |   |   |   |   |   |   W_problems > 0: 0 (3.0)
|   |   |   |   |   |   |   |   |   |   |   |   |   |   |   |   |   |   |   W_free > 0: 0 (11.0)
|   |   |   |   |   |   |   |   |   |   |   |   |   |   |   |   |   |   W_buffer > 0
|   |   |   |   |   |   |   |   |   |   |   |   |   |   |   |   |   |   |   W_change <= 0
|   |   |   |   |   |   |   |   |   |   |   |   |   |   |   |   |   |   |   |   W_data <= 0
|   |   |   |   |   |   |   |   |   |   |   |   |   |   |   |   |   |   |   |   |   W_usage <= 0: 1 (7.0)
|   |   |   |   |   |   |   |   |   |   |   |   |   |   |   |   |   |   |   |   |   W_usage > 0: 0 (2.0)
|   |   |   |   |   |   |   |   |   |   |   |   |   |   |   |   |   |   |   |   W_data > 0: 0 (2.0)
|   |   |   |   |   |   |   |   |   |   |   |   |   |   |   |   |   |   |   W_change > 0: 0 (3.0)
|   |   |   |   |   |   |   |   |   |   |   |   |   |   |   |   |   W_multiple > 0: 0 (12.0)
|   |   |   |   |   |   |   |   |   |   |   |   |   |   |   |   W_Informix > 0
|   |   |   |   |   |   |   |   |   |   |   |   |   |   |   |   |   W_compatibility <= 0
|   |   |   |   |   |   |   |   |   |   |   |   |   |   |   |   |   |   W_file_ <= 0: 1 (7.0)
|   |   |   |   |   |   |   |   |   |   |   |   |   |   |   |   |   |   W_file_ > 0: 0 (2.0)
|   |   |   |   |   |   |   |   |   |   |   |   |   |   |   |   |   W_compatibility > 0: 0 (4.0)
|   |   |   |   |   |   |   |   |   |   |   |   |   |   |   W_rules > 0
|   |   |   |   |   |   |   |   |   |   |   |   |   |   |   |   W_index <= 0: 1 (10.0/2.0)
|   |   |   |   |   |   |   |   |   |   |   |   |   |   |   |   W_index > 0: 0 (5.0)
|   |   |   |   |   |   |   |   |   |   |   |   |   |   W_original > 0
|   |   |   |   |   |   |   |   |   |   |   |   |   |   |   W_Add <= 0: 0 (5.0)
|   |   |   |   |   |   |   |   |   |   |   |   |   |   |   W_Add > 0
|   |   |   |   |   |   |   |   |   |   |   |   |   |   |   |   W_messages <= 0
|   |   |   |   |   |   |   |   |   |   |   |   |   |   |   |   |   W_string <= 0: 1 (12.0)
|   |   |   |   |   |   |   |   |   |   |   |   |   |   |   |   |   W_string > 0: 0 (2.0)
|   |   |   |   |   |   |   |   |   |   |   |   |   |   |   |   W_messages > 0: 0 (2.0)
|   |   |   |   |   |   |   |   |   |   |   |   |   W_change_ > 0
|   |   |   |   |   |   |   |   |   |   |   |   |   |   W_query <= 0
|   |   |   |   |   |   |   |   |   |   |   |   |   |   |   W_handling <= 0
|   |   |   |   |   |   |   |   |   |   |   |   |   |   |   |   W___ <= 0: 1 (10.0)
|   |   |   |   |   |   |   |   |   |   |   |   |   |   |   |   W___ > 0: 0 (2.0)
|   |   |   |   |   |   |   |   |   |   |   |   |   |   |   W_handling > 0: 0 (2.0)
|   |   |   |   |   |   |   |   |   |   |   |   |   |   W_query > 0: 0 (3.0)
|   |   |   |   |   |   |   |   |   |   |   |   W_COPY > 0: 0 (23.0/1.0)
|   |   |   |   |   |   |   |   |   |   |   W_idea > 0
|   |   |   |   |   |   |   |   |   |   |   |   W_check <= 0
|   |   |   |   |   |   |   |   |   |   |   |   |   W_change <= 0
|   |   |   |   |   |   |   |   |   |   |   |   |   |   W_prevent <= 0: 1 (10.0)
|   |   |   |   |   |   |   |   |   |   |   |   |   |   W_prevent > 0: 0 (2.0)
|   |   |   |   |   |   |   |   |   |   |   |   |   W_change > 0: 0 (2.0)
|   |   |   |   |   |   |   |   |   |   |   |   W_check > 0: 0 (4.0)
|   |   |   |   |   |   |   |   |   |   W_Lane_ > 0
|   |   |   |   |   |   |   |   |   |   |   W_prepared <= 0
|   |   |   |   |   |   |   |   |   |   |   |   W_translation <= 0
|   |   |   |   |   |   |   |   |   |   |   |   |   W_reporting <= 0: 1 (14.0/1.0)
|   |   |   |   |   |   |   |   |   |   |   |   |   W_reporting > 0: 0 (2.0)
|   |   |   |   |   |   |   |   |   |   |   |   W_translation > 0: 0 (2.0)
|   |   |   |   |   |   |   |   |   |   |   W_prepared > 0: 0 (4.0)
|   |   |   |   |   |   |   |   |   W_log > 0: 0 (26.0/2.0)
|   |   |   |   |   |   |   |   W_win32 > 0
|   |   |   |   |   |   |   |   |   W_determining <= 0: 0 (21.0)
|   |   |   |   |   |   |   |   |   W_determining > 0: 1 (2.0)
|   |   |   |   |   |   |   W_things > 0
|   |   |   |   |   |   |   |   W_command <= 0
|   |   |   |   |   |   |   |   |   W_flag <= 0
|   |   |   |   |   |   |   |   |   |   W_files_ <= 0: 1 (13.0/1.0)
|   |   |   |   |   |   |   |   |   |   W_files_ > 0: 0 (2.0)
|   |   |   |   |   |   |   |   |   W_flag > 0: 0 (3.0)
|   |   |   |   |   |   |   |   W_command > 0: 0 (4.0)
|   |   |   |   |   |   W_references > 0
|   |   |   |   |   |   |   W_SGML <= 0
|   |   |   |   |   |   |   |   W_statements <= 0
|   |   |   |   |   |   |   |   |   W_DATABASE <= 0: 1 (17.0/2.0)
|   |   |   |   |   |   |   |   |   W_DATABASE > 0: 0 (2.0)
|   |   |   |   |   |   |   |   W_statements > 0: 0 (4.0)
|   |   |   |   |   |   |   W_SGML > 0: 0 (4.0)
|   |   |   |   |   W_Kings_Lynne > 0
|   |   |   |   |   |   W_SQL <= 0
|   |   |   |   |   |   |   W_Change <= 0
|   |   |   |   |   |   |   |   W___ <= 0
|   |   |   |   |   |   |   |   |   W_required_ <= 0: 1 (15.0/1.0)
|   |   |   |   |   |   |   |   |   W_required_ > 0: 0 (2.0)
|   |   |   |   |   |   |   |   W___ > 0: 0 (2.0)
|   |   |   |   |   |   |   W_Change > 0: 0 (2.0)
|   |   |   |   |   |   W_SQL > 0: 0 (4.0)
|   |   |   |   W_temp > 0
|   |   |   |   |   W_correct <= 0
|   |   |   |   |   |   W__Allow <= 0
|   |   |   |   |   |   |   W_method <= 0
|   |   |   |   |   |   |   |   W_explaining <= 0: 1 (15.0)
|   |   |   |   |   |   |   |   W_explaining > 0: 0 (2.0)
|   |   |   |   |   |   |   W_method > 0: 0 (2.0)
|   |   |   |   |   |   W__Allow > 0: 0 (3.0)
|   |   |   |   |   W_correct > 0: 0 (4.0)
|   |   |   W_entries > 0
|   |   |   |   W_rename_ <= 0
|   |   |   |   |   W_WAL <= 0: 0 (31.0)
|   |   |   |   |   W_WAL > 0
|   |   |   |   |   |   W_docs <= 0: 0 (4.0)
|   |   |   |   |   |   W_docs > 0: 1 (2.0)
|   |   |   |   W_rename_ > 0: 1 (2.0)
|   |   W_actual > 0
|   |   |   W_broken <= 0
|   |   |   |   W_library <= 0
|   |   |   |   |   W_statements <= 0: 1 (16.0/1.0)
|   |   |   |   |   W_statements > 0: 0 (2.0)
|   |   |   |   W_library > 0: 0 (3.0)
|   |   |   W_broken > 0: 0 (4.0)
|   W_ago_ > 0
|   |   W_Avoid <= 0
|   |   |   W_whole_row <= 0
|   |   |   |   W_thread <= 0
|   |   |   |   |   W_SGML_ <= 0: 1 (17.0)
|   |   |   |   |   W_SGML_ > 0: 0 (2.0)
|   |   |   |   W_thread > 0: 0 (2.0)
|   |   |   W_whole_row > 0: 0 (3.0)
|   |   W_Avoid > 0: 0 (3.0)
W_Implement > 0
|   W_idea <= 0
|   |   W_cases <= 0
|   |   |   W_typo <= 0
|   |   |   |   W____ <= 0: 1 (24.0)
|   |   |   |   W____ > 0: 0 (3.0/1.0)
|   |   |   W_typo > 0: 0 (2.0)
|   |   W_cases > 0: 0 (2.0)
|   W_idea > 0: 0 (3.0)

Number of Leaves  : 	88

Size of the tree : 	175


Time taken to build model: 49.15 seconds
Time taken to test model on training data: 4.74 seconds

=== Error on training data ===

Correctly Classified Instances         616               96.25   %
Incorrectly Classified Instances        24                3.75   %
Kappa statistic                          0.9196
Mean absolute error                      0.0665
Root mean squared error                  0.1823
Relative absolute error                 14.2741 %
Root relative squared error             37.7854 %
Total Number of Instances              640     


=== Detailed Accuracy By Class ===

               TP Rate   FP Rate   Precision   Recall  F-Measure   ROC Area  Class
                 0.968     0.047      0.973     0.968     0.97       0.986    0
                 0.953     0.032      0.945     0.953     0.949      0.986    1
Weighted Avg.    0.963     0.041      0.963     0.963     0.963      0.986


=== Confusion Matrix ===

   a   b   <-- classified as
 391  13 |   a = 0
  11 225 |   b = 1



=== Stratified cross-validation ===

Correctly Classified Instances         341               53.2813 %
Incorrectly Classified Instances       299               46.7188 %
Kappa statistic                         -0.0098
Mean absolute error                      0.4699
Root mean squared error                  0.6543
Relative absolute error                100.8973 %
Root relative squared error            135.6135 %
Total Number of Instances              640     


=== Detailed Accuracy By Class ===

               TP Rate   FP Rate   Precision   Recall  F-Measure   ROC Area  Class
                 0.639     0.648      0.628     0.639     0.633      0.488    0
                 0.352     0.361      0.362     0.352     0.357      0.488    1
Weighted Avg.    0.533     0.543      0.53      0.533     0.531      0.488


=== Confusion Matrix ===

   a   b   <-- classified as
 258 146 |   a = 0
 153  83 |   b = 1

